const BESTBRAINEVER = `{"levels":[{"inputs":[0,0,0,0.2800735957021181,0.610378637601712],"outputs":[0,1,0,1,1,1],"biases":[0.33603928961319507,-0.6675905104639457,0.10211396802128223,-0.7073210117908126,-0.5053230040711015,-0.5614724774727778],"weights":[[0.07436310010433292,0.5463587532649375,0.36036619930671604,0.2219297792691693,0.8396650935887551,-0.35465283725948005],[0.7305863809677594,-0.7109916192459012,-0.5088439049000502,-0.015305292565438972,-0.03251271581041642,0.3601696985050919],[0.6269887713599656,-0.600674904972788,-0.7371561019040996,0.5401374227695619,-0.5312878982488485,0.2817801940592044],[-0.594577577433465,0.5314049094681934,-0.7474615951402138,0.16332586046521688,-0.7095788478207664,0.08466046382131619],[-0.29440577261786216,0.19975727991439438,-0.29196310955637633,0.27284477578549576,-0.4382576771992629,-0.21678864137387807]]},{"inputs":[0,1,0,1,1,1],"outputs":[1,0,0,0],"biases":[-0.30034495446351606,-0.5621360696179177,-0.34111390012848963,0.5472967975366327],"weights":[[0.10139682988654547,-0.4117304431167477,0.8303684185355042,-0.48212918547196043],[0.12642945592133784,-0.20809328631931218,-0.405744729344668,0.05704282903414401],[-0.5191978815483358,-0.4225338272431624,-0.5176952412046162,0.3093389618928459],[-0.5106621660884506,-0.12720698828659704,0.08344147684124784,-0.40540646204418224],[0.5739176025697725,-0.08433802666687891,-0.23241320082401437,-0.12390818487845119],[0.5421939603867911,-0.1687290898889693,-0.5528055009776143,-0.08525449841693944]]}]}`